# MLP weight file
8 32 32 3
0.30995170071104267 0.3162417955566445 0.31433185277072134 0.2788923755051647 0.5015345275335645 0.4986450406933958 0.5064840574029749 0.7682991059745079
0.2950394094754698 0.2972408336767882 0.2949792685566775 0.15893796041979344 0.2877751152461641 0.2864474146892871 0.29022598972334007 0.186873583407987
0.3353196528055235 -0.08232007594214821 -0.11310239050691957 -0.46064888682101296 0.4593678196734854 0.08986284393259579 0.2155101415233634 0.4729130167706887 -0.20352195758731983 -0.2038731575060632 -0.37209307872237446 0.2794578833642761 -0.3742165803189352 0.47115864092778564 0.38696201032683447 -0.27778751495319576 -0.16480046970912643 0.4288870319383962 0.20197873924535054 -0.221015223423275 -0.3522462345737948 -0.1545006436125878 0.17167837661958169 0.12548146231362017 -0.465615327198218 -0.3854909856314459 -0.20261445582817403 0.06847899835268385 0.0037815379878978713 0.0014638316098457328 -0.2863522114147127 0.2526073030764992 0.2124212527944184 0.47336952124446624 0.4254675286428591 0.1648131486425536 0.016509804424741776 0.15525200369320313 0.15172735516658578 -0.43125525679178944 -0.19714890847792851 0.4138453676298656 0.14828092157097753 -0.3100207318744869 0.3112319484610199 0.3224413874739704 0.18189431729411812 0.40303668755996236 0.16848316822132348 0.41167721187476447 0.07650230894417663 0.3870089832520291 0.29202220962152575 -0.4065303767333213 0.08057648402675222 -0.07633995169262313 0.35910568127619547 -0.008419788396963982 -0.4519720623832393 0.4897484683121051 0.09296616567256265 -0.41790282670736373 0.14784254278710646 0.23817511453823348 -0.4458029046855423 -0.13977922332596496 -0.29655012266602504 0.29786909413082263 0.41192121142824595 0.11464365117675782 -0.36539219782581545 0.4350063909797762 -0.31497156064250004 -0.23972065276127405 0.4428040216476455 0.25826765995270584 -0.39880958483941 -0.1768379506536517 0.4411862368707581 0.4138081966158037 0.14885813864719916 -0.05724808521481809 -0.24254450609495695 0.428034135617648 0.48400013980739337 0.15151410301041957 0.16769806289842673 0.039744605551597506 -0.41983627910256466 -0.3807225473244559 -0.15395256651403036 -0.3341191165385273 0.39952272984009 -0.3805608556391089 0.32261383809072824 0.18072225563972918 0.2447784631288161 0.12775554853320428 -0.15215750743337808 -0.24560368946607075 0.21017806420787447 -0.38379402744192254 -0.35791881494990146 0.21383750274845922 -0.16460673825455102 0.10159416680406567 -0.37587240201824007 -0.2772250777760664 -0.10666380942185669 -0.1001825078674131 -0.18772725476401214 -0.37031523645935127 -0.2774184197205769 -0.28668354274049224 -0.05109597924152459 -0.22958108290825296 0.4753696593678022 0.2394711307394169 0.1825270035792789 0.0637760553519157 -0.43347007374591046 -0.36618583109861425 -0.3794499643499286 0.4215463312163781 -0.2400009623279625 -0.3304153124921643 -0.2294307118120215 -0.24906672523787693 -0.33986103897911835 -0.18049189555622486 -0.2179333848190414 0.3890096920167884 0.32587036531863584 -0.20225879275043554 0.1753145785310012 0.1153459506324762 0.16182860499652651 -0.38218760022805914 0.09025953164623368 0.0015695239425796658 0.1669344384382537 0.36948437030816506 -0.4244829611100422 -0.042330415389787754 -0.3974314399861156 -0.1863806624789942 -0.26310047918458634 0.09734424293242275 0.38119341360983716 -0.42803330502869236 0.12620436655393477 -0.27501214832608745 -0.11837381464571295 0.22883972225939775 0.029505687163589592 0.06978074432872368 -0.4351585529060782 0.5068096803138503 0.16026396745531898 -0.40323019779817715 -0.45913839287028657 0.3702654403475947 -0.45233778117982065 -0.5042616438711142 0.07410432185008653 -0.09847694337557927 0.03208511406186872 0.10188528191509104 0.23314956115814003 -0.2964935337200881 0.44751581496057613 0.37469549905276844 -0.42040877601403664 -0.009580975434371893 0.46979806546082625 -0.33818089630903975 0.2829685414849741 -0.2061200293881952 0.2567764915406998 0.34161484081415555 -0.2491104354365801 -0.43099865777021606 -0.1366263302533232 -0.10276291594589591 0.2924858713401788 0.06946355594441096 0.1469650686856352 -0.06921102838102232 -0.45083988653781326 -0.3827557208740025 -0.11787591116601498 -0.35580967562022775 0.1137658221967367 -0.024499751805229775 -0.09706048236632853 -0.3754229714432226 0.3161180705972723 0.5016972383228655 0.12624147008895814 0.310592246152433 -0.4839676877068829 -0.14711839792446707 -0.2933137754892708 -0.010580186023133015 0.0610505476972224 -0.14565222601243286 -0.12751774766595256 0.04368881103042531 0.08827751195804072 -0.40776582463171546 -0.12600333313325146 0.3401961741496296 -0.06019556210683081 0.23218870351199736 -0.16980389018549455 0.3737034801027994 0.4433503812029552 -0.25497477951226677 -0.049133577883230466 0.004071577560874798 0.28735970125719595 0.24194427934552748 -0.10827798081512939 0.0663175283072805 0.23387940292266424 -0.4971550769309169 0.11695779098838514 0.30802802337661733 0.2444647935538948 0.35330852851740835 0.48586790816517056 0.20370242672406771 0.16499592182804806 -0.29735790433991593 -0.3902122265677343 -0.0032826347472949763 0.13020369635334358 -0.25520282604420774 -0.015427700142572165 0.26825587788985067 -0.3919823271066373 0.21515425177528308 -0.36794311698558346 0.4473109578515284 -0.3331168777016815 -0.16265833444737884 0.03017640831806378 -0.35800062466932786 0.13032159551931666 0.18071585812217789 0.09882382031592492 -0.3873131466332558 0.20854841614650643 -0.059854385403121824 -0.40547509689476835 -0.14399080468707404
-0.002550391525078335 -0.01633216733050828 -0.01660892009727386 -0.014430527228709102 -0.007434666323226212 -0.00231984627172926 -0.005756407861034128 0.001061542456711148 -0.0007994239362923342 -0.023383520113617263 0.005778032427167238 -0.028682957933850905 0.0037400047917423677 -0.012166266163993786 -0.01022157165212589 -0.005469664031730308 0.019753518517323813 0.012145100096131905 -0.021178647305740633 -0.017895716693966043 -0.0008587046591704753 0.0002561381882604058 -0.02532435773207098 -0.018896361190775358 -0.0010257896096216516 0.019089947382951535 -0.01186926879759337 -0.004406635613575768 -0.004142393027866267 -0.03113260558751469 0.003082062653035393 -0.008484013872330866
-0.2014861850400103 -0.22895615060705818 0.24248429872759544 0.1616676259372228 -0.08526018842896373 -0.12818204963732013 -0.008775037162753027 0.14731228453397577 0.1355809558055561 -0.25072686239483344 -0.1142499895897418 0.07115069420077802 -0.18310976474383353 0.2556961729679273 0.04303519080870455 0.21231594998565606 -0.08517370049480057 -0.21472051159181293 -0.06585707561866337 -0.0857969022026288 -0.08393398477273062 -0.0775550162900951 0.2660773712600358 0.07237142804183341 0.23126569354766707 -0.08008214566921763 0.04014876830638746 -0.2160941492044433 0.038625852735780834 0.20051815806738235 -0.21129787407227765 0.16574603666239365 0.2482021221452737 0.07725471878967542 -0.12239629585845445 0.11885379205712461 0.03518765874253602 -0.2321090273956198 -0.08077903001202981 0.07607109147319756 -0.0910837985404516 0.046804250074834845 -0.1960562274855811 0.13727670052868857 -0.041368236947323875 0.14458560279481827 -0.035602120351956534 -0.1723210229924301 0.1746830156219894 0.0538519875545677 0.1391158256859522 0.19584791764041246 0.13862716137199296 0.10799056156259015 0.20329571127668503 0.07084320530155944 0.09002391150683546 -0.019129981584032275 -0.03290577320083469 0.10506838205806648 -0.024691127366212342 0.11556697374096084 0.1225393469975233 0.09407901136899567 -0.15631923168737064 0.21412598169106928 -0.136529683241005 0.1517388822874529 0.14389601034644364 -0.029304970244379096 0.047676437002765346 -0.2400801847825266 0.19123943900983426 -0.08738799396084454 0.03179514707375168 -0.19911039466751593 -0.18588982937254617 -0.050523341538459283 -0.2206690130127615 0.012112286015526212 0.02815531062196361 -0.042478893698215885 -0.06776811624885236 0.08790825647955007 0.04924157095188363 0.1580746816706096 -0.1892131782889064 -0.14097438425686834 -0.18566637021153654 -0.1802250033746204 -0.20608000611011626 0.1420280538043393 -0.03729960893333186 -0.14877940352392593 0.22180251790249864 0.06497570629577026 -0.07112132622812961 0.18840141844467354 -0.2523726114635485 -0.02274398416074364 0.02868825907883757 -0.039967388631570705 0.1390201553754643 -0.08414872401504365 -0.007611220321406685 0.14022504647213058 -0.15170777151718645 0.1420001427651875 -0.04562390837263415 -0.15019962180268495 0.06776382562359198 -0.09715996314068252 -0.18697492086433698 -0.032667315312791316 0.16903593849028026 -0.24809656883641099 0.07925304992137917 0.22073706648836108 0.16654630559714279 -0.1698624819031703 -0.14966403403505055 0.13679267762820313 -0.19157188252583168 0.058153114398414314 -0.24322166876787327 -0.16111970499092615 0.18865834285678856 0.05889357838932548 -0.2293906148158477 0.1162170974298748 0.1673494448544633 -0.09005891770382322 0.10514405187014317 -0.25757808285718126 -0.02949100448085886 0.017236254421439633 0.10102920058622804 0.056679106046185444 -0.07291214552181831 -0.1406037450676701 0.1270830107515327 -0.08590852489440942 -0.1074881056447117 -0.02655244691339813 -0.1011672512521436 -0.06854110506275753 0.2248549200061433 0.17384089828945148 0.02431392597067245 -0.044170232535261714 -0.16264207623332197 -0.1938544233642866 -0.009661721248947035 0.005679898640391649 0.17274643294164982 -0.13387170231253753 -0.08026549446545068 0.023674078521103956 -0.2153515418237179 -0.17637559525726346 0.10916160244642999 0.22324004048149668 -0.03772757453758485 -0.05360491335548908 -0.030471461201980975 0.1352549939475798 -0.07624305603916895 -0.1555427998174242 0.06224930249380214 0.11261392513791714 -0.15132151307163244 -0.16237402355682193 -0.20276717180625495 0.10853447069909052 0.033753051046795476 0.12205495682943161 -0.22749682190364887 -0.25124023094796233 -0.006022707813732641 0.15994618022574109 -0.1986360602184317 0.03741572394097805 0.1556322207029401 0.10580544973850778 -0.0723669296989423 -0.11558846568130024 0.16471784360512906 0.07922417615873803 0.18489804333816454 0.2358143615074638 0.10026501301542996 -0.21120984715848884 -0.20614295387095596 0.013260300715715706 0.1815099898613376 0.08064407332572217 -0.10605025516463051 0.13752104910595941 -0.21179741152698078 0.04146770640433119 -0.2202751794283183 0.14605829412694282 -0.11424758653838223 0.06645573595225834 -0.08161356194169977 -0.0683810674632061 -0.03051095404394963 -0.037072495196374275 -0.06220471789924115 0.04282174048246817 0.1002479923097821 -0.18748573699816348 -0.17082571022017176 -0.020520080850165757 -0.20016765730270164 -0.01723249679894855 0.10802280303344634 -0.23498742237966247 -0.0964418794344654 -0.05721593589167783 0.2387386512247738 0.09051799586607227 -0.19084971222258634 0.24161693934581738 -0.03171045868180703 -0.06463964949105187 0.23954921751840258 0.15171456855494453 0.09265051033699219 -0.17633577011915041 0.2207597999816138 -0.23471933615937313 -0.19848320833676802 -0.09669763652037854 -0.16522229194605662 -0.13407553566060856 0.2125021226368254 -0.20827810054120643 0.24209656747700445 -0.08687122531657565 0.23912192752401407 0.07778906277646784 -0.15506620062498946 0.1502553475701261 0.21052792447003457 -0.06235803465895532 -0.2038834785148733 0.05764911692217762 0.05729377684921066 0.0579885191224739 -0.1705903815243148 -0.2195207388315885 -0.21419958975686534 -0.1836533688504224 0.23837907170265438 -0.19519653966876355 0.1283471907074831 -0.23926918983059753 0.15505755298238025 0.06312422855151531 0.08044581402007678 -0.13585749567981548 -0.2344207707272105 0.15273030419649636 -0.033048095546831496 -0.10978809875633383 -0.220464431896248 0.2381731915190139 0.08891188869261885 -0.19080125573994394 0.14485324811845543 0.00889378727811414 0.13560705859770147 0.09883441001373669 0.25259595060915996 -0.20797018062277084 -0.2077595323552701 0.049681512374475066 -0.19802811936382164 0.22174567229055508 0.14112452111110738 -0.04886849280113549 -0.22373010563011778 -0.08335434505612424 0.07947520820262326 -0.22444170744311026 0.048118012546656104 0.15413548807514713 0.1882910595507614 0.016672223477222654 -0.048956291359565286 -0.10782715792751352 -0.21831931546898886 0.04709011650736184 0.043409209477436074 -0.16474540762328344 0.0813101161847043 -0.158821620631317 0.004560024752910024 0.06661134047201242 -0.01977703399302019 0.14363605667504625 0.1964551688741305 0.10692930480615648 -0.23762578355897282 -0.07944109408430991 -0.1593681804789652 -0.0915112796073447 -0.01993584917363768 0.033443704493904554 0.20865108025105958 -0.005066479525445305 0.24979989292983032 0.02936248453402828 0.10076810817335015 -0.0212924017117538 0.011741497072541263 0.10779331055000071 -0.0886716823355751 -0.15017867144963526 -0.072917559128793 0.04845242874960985 -0.16692697797759806 0.03096764517740028 -0.12130232587005521 -0.13033975931940706 -0.21254480803051398 0.1868791588528003 0.13427531433518067 -0.07740623001783246 -0.131882687650155 -0.025379515564541755 0.04177638313273533 0.0888585177100191 0.18366192466348702 -0.21998356680095466 -0.21202060486389224 -0.23557333323346802 0.0020504267481932063 0.09100067185388944 -0.01598366244589628 0.09102556347316122 -0.18983366836930826 -0.17087201820325998 -0.16744812984656451 0.06927694572935893 -0.11658553820591441 -0.11469956749288879 0.036877148341919956 -0.10513668227530144 -0.022935080087476974 0.15121150415634527 0.13878514303136338 0.021274884299827757 0.008534441152957583 0.14988595972199883 -0.053014159096078234 0.04756456430247601 0.1870162645793728 -0.09641718242070124 0.24173748203420617 -0.2131623751003311 -0.12428637433498715 -0.19569507391564495 -0.06354056136303955 -0.17457696783711155 0.11350661685071833 -0.20084602445684166 -0.18796270116642297 0.11353929670528813 -0.011426828894778607 -0.1337017788307619 0.1464958878168913 -0.20664107455608635 -0.13214083664479795 0.017989081271800135 -0.035949582989266836 0.1454788168042282 0.08899929444069887 -0.1954328626113432 0.12260543491351687 -0.14292715328479577 0.05079752256975447 -0.08566439780144224 -0.07777163681678258 0.2021405858353727 0.050470433311958114 -0.1873178719409343 -0.07445032225207521 0.023781587425667904 -0.1913422541440361 -0.1553381732759178 -0.16577476085817483 0.22466890974192605 0.15660319976179518 0.1177797197902963 -0.030966368330592384 0.1803309788714836 -0.1520021896252361 0.21513963745463607 0.22435916756629828 -0.022546670006503084 -0.2459835664102584 0.18585204887359372 0.035763741289533156 -0.12210707251506721 -0.03777002372922186 -0.042088330790144755 -0.23281366342116466 -0.022832435144727867 0.23245424936756162 0.21849890687285198 0.031017231589028547 0.1452015894699778 -0.2058475021734797 0.07853602860677597 0.065550037263705 0.2227836215274073 0.04347372195689059 -0.16684195056316523 0.2008977311779071 0.04315315815672022 -0.23534126125521068 0.14699573347843664 -0.1455028101680787 0.22367033685365734 -0.08449366660677099 -0.010113188020827134 0.02851029383351143 -0.095335879187644 0.08119102123020462 -0.07148816511962587 -0.23373270582095138 -0.23110981862764668 0.011941506931081706 -0.07175116198041676 0.0915142061797064 -0.12794745555049986 -0.18996004195961022 0.2425308390942882 -0.07339124958130701 0.13975870038654528 0.05688324090645219 -0.17470239783196292 -0.011209954328644191 0.20738623755903823 0.13754076404991158 0.1831730155354365 0.08749302791174438 0.17898369174805662 -0.16274268424868488 -0.1331652407536742 0.0001740788386903609 -0.18979309340451203 0.19967540909253478 -0.11554945813765564 -0.06426389989911581 0.19108241322195324 0.24508535556633984 -0.20695602844036592 0.17518477013682546 -0.11570519139410079 0.05365437006896459 -0.07918492311705982 0.0783068218040259 -0.21352403823972094 -0.11671906582620169 0.12271202789533821 -0.12927926922278177 -0.11203949057748483 -0.08372719756747785 -0.08247168967351845 -0.24981872562807858 -0.18796007686865115 -0.17741895632824714 -0.21393340765086608 0.06173878305842242 0.09438828487878095 0.004436605481780823 0.2278933722646135 -0.08278879237626961 -0.19083540513871222 -0.19626815589802335 0.22929065291724882 0.19289546754698922 0.19651720278117268 -0.16687700122187185 0.02691796579646817 -0.002093668396807653 0.11263203558851283 -0.22811823352987418 0.04209343934303795 -0.18135501968583048 0.19326118949403126 -0.16461717518330715 -0.23000778209779832 0.11702276695294456 0.19787258470557137 0.17481499603507922 0.1546936138962315 -0.04958576886395561 0.1917740140152897 0.0353956510125368 -0.2144039134394004 0.16479962211224525 0.15045383434344411 -0.05383796773187029 0.0170823972273958 0.1058790133056172 -0.15962537624406337 -0.1776653504442045 0.06606648868212299 -0.017877133804215035 -0.21831485072347676 0.18716763052168067 0.07779219197416007 0.04868552704732876 0.22702325241148102 -0.01282477223390363 -0.13652205205049284 0.09254979996566384 -0.12827820505735524 0.0814697746063016 -0.15988128208923405 0.07424582083028722 0.0486785555707222 0.048580334811541316 0.11102556063583234 -0.17808157148831952 -0.1422046877622113 -0.08710250845359203 -0.1494551962664153 -0.19692805142142006 -0.08281308199187246 -0.12629417993681205 0.24589896296187233 -0.02810605243746612 -0.1211739814319714 -0.0375712634956776 -0.13172281616753145 -0.2132885326029048 -0.018136884951767934 -0.07376854414013785 -0.04069316936729284 -0.10703567002401265 -0.14563722425185216 -0.2082312739954172 0.005247083895031598 -0.16224611958020907 -0.2139115214767234 0.10362882874772406 0.1968392710439097 -0.08713544271822171 0.2230644393262246 0.0979097290417391 -0.16287138567722517 0.1877246677397044 -0.08091286982916707 -0.090723509942838 -0.13944183723252407 -0.20157677525392892 0.15402752639862388 0.21290992255169766 0.11868436685351685 0.1989934924518902 0.13465489367359867 0.017498930840151538 -0.0924992203744558 0.16304087472424145 -0.09327564012933351 -0.17617455661486475 0.1619393339099661 0.04614848597942731 0.1449906153336239 -0.24532625712404238 0.22762883259000227 0.17236353718773403 0.1333104651337104 -0.2131394550292092 -0.14861806570193495 0.1978817086725583 0.00825560753002096 0.10136446804535973 0.020237770072523392 0.2307198312315008 0.054882138919270115 0.1386566715525435 0.20500619340681941 0.050019330183333335 0.025188416418521216 0.13270542342022432 -0.03218792196759865 -0.052393360414397676 0.0434030438472398 -0.23278275220603653 -0.24088744663590936 0.07057633762442952 -0.11615939056448715 0.10622173202510433 0.16083521645439297 -0.13898849768951754 -0.06722547117765526 0.23688567393087265 0.10902858535056968 -0.23222169654039884 -0.14778062961504104 -0.15438493798271916 0.2239676082895421 -0.19914209793024598 -0.12155352935907063 0.224745459151438 -0.17694920167521755 0.13474109814205 0.1991614025549661 -0.14434980076491763 -0.032338183041997114 -0.018100868278040978 -0.15915169825332723 0.1714185438890955 0.14086607300510634 0.22018775319528766 -0.22519033331411925 0.24689839707202013 0.1879690844450966 0.05262811787954566 -0.07869301139855553 -0.14415010891643973 0.05108840858389053 0.16094670659944693 -0.263412674513045 0.21678631901949955 0.01085369426303955 0.23951616664864003 0.057811344224196995 -0.01778539813459941 0.09139202300060145 -0.026003729087770173 -0.17470358393166394 0.1777257553241573 0.006847105150919009 0.03898817670640249 0.21828369733745254 0.1317186212732804 -0.2542304601300716 -0.06313410144870031 -0.1100369352914141 0.17354187236402288 -0.11180875268193662 0.11828849558726443 -0.007814341003964515 0.07452699243618383 -0.11677157601042248 0.11337315093065325 -0.01108625189270233 -0.20121698388498405 -0.25659212412534405 -0.0006021182383898246 0.12807244255018732 0.12050202235245247 -0.022001866231324205 0.15056185027607605 0.13092989864586121 0.15869478292380165 -0.21278131651793683 0.10201701336783471 -0.05564300553577341 0.033094537574159574 -0.1558630051814441 0.06100551751784531 0.19773988309099358 -0.14861430870770267 0.06123623266217258 0.020845006904918018 0.05124097204542276 -0.04338181772164076 -0.012327406497683387 0.1511221474412825 -0.08977197205746464 0.004901112340196383 -0.04313967641426575 -0.14052688049128217 -0.24500747885107504 0.06964893861776383 0.1765699854966316 0.03387070786244969 -0.02012058710603874 0.04132744429405002 -0.20592852252863175 -0.20622690516261308 -0.09281576863665747 0.21804227788968925 0.06206411901021612 0.11326603429388697 0.25001080051489566 -0.07736116491434988 0.024914201654944183 0.20677763338380079 -0.07393738098284167 0.14928844923652929 -0.005916130910142612 -0.18101993080817425 -0.11346477550768187 0.16079309893884003 -0.09552243352178139 -0.044933579027844325 -0.06650886523102516 0.23338834998975688 0.024300738322142197 0.16941374557699945 -0.14303304214580698 -0.02042071186081843 -0.06225917676989741 -0.1333898715742864 -0.21151271104926395 0.237773178050011 -0.19402625075494187 0.23502136386878264 0.13894627307712584 -0.06671539609717819 0.12827291215960676 0.24079602723346077 -0.1849526077600392 -0.22584798053780564 -0.0076635445239368 -0.03315292636492502 -0.01018802672263292 -0.017349254703990267 -0.18700121502682968 -0.04740518236811883 -0.1307256228932682 0.11271986942505051 -0.14880942155945398 -0.0901327685037506 -0.24517412034848904 0.15887167164282007 -0.23220495739862249 0.07790322285113811 0.14179341740461596 0.023806185754889294 -0.14906168789438184 -0.2097134775900898 -0.11603830007427295 0.07341453362749871 -0.22370667906578048 -0.2117339839349217 -0.2126054287256897 0.11999119214425592 -0.22802732925630137 -0.21329299769830928 -0.041021610583798274 -0.09723644379964957 -0.14641554683101873 0.027900986945396892 0.24283551629418387 0.08028272646334403 0.01809752301825138 -0.2024997740194409 0.010357475504731583 0.12088790296643225 0.148451373953884 -0.15574176208610724 -0.0036108970348302173 -0.1572355472507388 -0.21983502899074853 -0.1231633713551429 0.1488431966978015 -0.004975907464759149 -0.12718945024476136 0.11755976269225181 0.1065864980657842 -0.001828347494193128 -0.23434639535060403 -0.01992585341680146 0.009158955498374489 -0.020848343641516137 0.058242778449589847 -0.07228844825567425 -0.11442523647899987 -0.1761526105953989 0.10176853559445606 -0.16050338185881927 -0.10910075008223076 0.07518696857089588 0.08825018300770979 -0.2235336076145119 -0.17277308900961613 0.06903972358857637 -0.20233877756193022 -0.0928121859066814 0.13679434182227565 -0.10305154452763214 -0.04640982675705496 0.02489188803145252 -0.18260789207401204 0.16738743590640928 -0.0288540508103579 0.06324223339762214 0.03789852822451421 -0.17715120645772864 0.13489916739201996 0.10494626341239777 0.09196088148756822 0.0978994743583527 -0.02101151921207359 -0.02558243657184245 -0.24800811284045648 0.17056442669504585 0.2057746321452172 -0.14596873840103314 0.12402983135840318 -0.09365167421897615 0.05463892986061388 -0.10733544554727253 0.032288269126231804 0.1959523974562598 0.1824546693101033 -0.23994493121705304 -0.16483103127615728 0.16662484811570688 -0.2288540156937567 -0.17758341633168162 0.0037700005776244746 0.239440116342414 -0.04899155356859978 0.16014334122449062 -0.016733425847492864 0.21022899289063296 0.03549318549024332 -0.11760537201305275 0.17710453661955222 -0.15114559466458655 -0.003060459542514314 -0.008933641841299578 -0.1881193594452449 -0.061187316024015836 0.21690536811376945 0.11149916326143841 -0.09031916967366282 0.18310404215844162 -0.19373965747908592 0.16094830835844223 0.14091077674815186 0.15249776611614832 -0.01412005185424356 -0.22000558171902324 -0.10499638059640612 -0.07661811926789366 -0.09257395839317314 0.1811297544420929 0.05801795271056365 -0.17754740861989682 0.18132960353057645 -0.22948395449555864 0.08687571547388973 -0.2656543880468159 0.01786995349523916 0.1730241769994387 -0.18844630651596886 0.06772141856986769 -0.1592492448002829 0.2254953684725169 -0.23751995017355987 0.08178746476422463 -0.1514517565365396 -0.021772767587824215 -0.2424070406159248 0.032061732124742406 0.09761860844191468 0.04357018770436859 0.03821933203805496 -0.030109205958743928 0.07133847578043011 -0.15359769545728547 0.03514714022348787 -0.17287847863528624 0.18456270127171653 -0.19550470996128386 -0.004668702339016087 -0.20937368393361624 0.04852978587712075 -0.15260106148856403 0.2224472337730818 0.14568750895064947 0.1638102780144909 0.1046667391648526 0.24329983351229123 0.1274234563195905 -0.16599197828552692 -0.17351360713771743 -0.19390564862710696 -0.09754849473220398 -0.17592121402003547 -0.19755662797662304 0.12374142867666019 -0.05278765573947178 -0.22146575138981628 -0.15129719837495423 0.005542698742696403 0.0537220384568269 -0.21358311923558335 0.14407171690915496 0.025412573512176816 0.057617810371415445 0.019877512715188617 0.08858808732354993 0.24095407200348715 -0.16293931676285714 0.0729575591300062 -0.1539561015547228 -0.1612942800403943 0.2110207849474486 -0.09990176109857177 0.1275778421616526 0.24623327421632943 -0.19093073995608226 0.0469622383188479 -0.044730101258568085 -0.1981787905310287 0.12116350286714973 0.1450891237242866 -0.05873364046087905 -0.1818539489423605 0.21058118125361588 -0.19180555682198241 0.07964318487747873 -0.03214146754684792 0.12570711823444375 -0.08966222012299865 0.2099635161395611 0.1686172606635142 -0.2171429127845762 -0.13119599150326716 0.09346463108535948 0.1452665013641818 -0.09471592622370578 -0.1719162459232382 -0.005958723606262159 0.11044895286153103 0.18742042233454773 0.21629283429928037 0.21859496319912305 0.21149430399495284 0.04598561233683243 0.2446242262825486 0.15384356045736836 0.12675379996408873 -0.16573649066766077 -0.15066075733779022 -0.08692977753942392 0.12777275287887538 0.00585647565507511 -0.21219389498931795 -0.025557383903011634 -0.002829614159913947 0.1548121746306247 0.06648084032879005 0.007801691592230271 0.13862838284234347 -0.019803200430873105 -0.11797616614231743 -0.14560725956091508 0.11446810325669521 0.14311335940061612 0.18377937857627885 0.24331960050807902 -0.03323544298790364 -0.2689567240941149 0.06254011584010248 0.010173029305171121 -0.24867103062104506 0.22704762092865122 -0.014817753888803038 0.19800576172517256 0.10599752210503993 -0.056749877641594844 0.10994720094352224 0.22044837548702098 -0.07736409617899154 -0.016655782584424746 0.1937345492054762 0.23043434168967694 0.09009301486746268 0.16950281135404863 -0.11622512569514687 0.17600274510578784 -0.13899633266133518 -0.09768087458279424 -0.13394137771467735 -0.12903736219543452 0.11228726842228343 0.039569568864610084 -0.24516457393430893 -0.13999572240276933 0.09166820962842787 0.22117903199769867 0.0145670236057172 0.28616855796331825 0.12391385931641945 -0.18698085547590962 -0.018419049516286177 0.10846638857403336 0.06254316662996887 -0.016939079878245347 0.06793153274451166 0.23823195452668752 -0.16961418003462062 0.18778920216878986 0.16825422646052576 -0.2023375923119687 0.1171141477016977 0.1778106370848687 -0.012053358284034268 0.0484678580495877 -0.11816615164053991 0.046112906566575414 0.21929319749805665 0.1274589488763331 -0.0906020801676657 -0.1825899723712778 0.09274319625172145 0.13772058834627113 -0.10953263783255308 -0.1849286799741684 0.001842783249023562
-0.00415378307233048 -0.0013533545710381835 -0.0020511238946819563 -0.03317365110588152 -0.04925605909670457 -0.017422994702475235 -0.03725019691870254 -0.018669420731100183 0.0038414200177822274 -0.01990046114518146 -0.0011918147168325228 0.0014091648233246446 -0.020945552306583147 -0.006318631727157128 -0.00013356357347669024 -0.01761054862801088 -0.016182588976060664 -0.008845773924910667 -0.002515368396693077 -0.0020619227976031167 -0.008102394156666205 0.014288043973990692 -0.002126581672236684 -0.026022619003548332 -0.026953625022600097 -0.042782690249567636 -0.002999899651769757 -0.01966242675816309 -0.00652798800606797 -0.00900458828446247 -0.010614093377798216 -0.0034896959109103703
-0.14450187529675396 0.11243520202026899 -0.14769211264294765 -0.1880355487503398 0.15007484308802022 0.02153822388949618 0.18324612419865793 -0.16909657503732384 -0.03323984439292795 0.029823098801442814 -0.0797606047414115 -0.03716060660921689 -0.05549230709776156 -0.08067897549714415 -0.10675394953592086 -0.13553394367767743 0.18721666324980352 -0.008195641613196743 -0.04132190056124248 -0.07298024988263911 0.09157619513211189 0.12213250171776552 0.14213231026497655 0.015082641999380352 -0.19351651772706407 0.03319225312527051 0.16574066769149798 0.05202225782217341 -0.047246646949992706 -0.08133430513856615 0.09582736075127728 0.09425064662589304 -0.02571004036639652 -0.17723372999916967 0.10766519714616468 0.15712135212874495 0.20353582687822938 0.011876367869083606 -0.14682326940867876 0.09787396882903658 0.09791745448375844 0.22595885643832425 -0.24626096864070698 -0.15772961251700238 -0.061284317565581364 0.17164785991364875 -0.053934792884598584 0.15478067926913866 0.1282364039950811 0.01074791674281327 0.05711643624456518 -0.1262650038668992 0.06424778912723024 0.04328336632843278 -0.13878756703181785 0.1390043104273507 -0.12580183782488152 0.10705772120855571 0.13891068099322984 -0.14387360497051574 -0.06917636184813031 -0.09593615461702755 0.17473318457944945 -0.046542096724739704 0.07172752350113493 -0.10860762903464642 0.1972319507821796 0.026879744737514644 0.12083284654150007 -0.09152121281145408 0.08202835366119399 0.014607346514381964 -0.04227713532725116 0.08435602110490895 0.20247508240301976 0.0015429084775857632 0.03807554577549307 -0.020171682920400905 0.09372999100155993 0.05467071867990089 0.20845237900772726 0.034126766762118815 -0.11263378071653542 -0.13590212850134897 0.0493434860624998 0.17780311494035883 0.008625897253465405 -0.20850913382255734 0.01842045513336384 0.06565316158955145 -0.04469009028885277 0.12781107741707093 0.04477262348799177 0.06022686766460006 -0.009345413367829071 0.12107577199617357
0.01788774795079803 -0.00025010757325485993 -0.011553485487471014
